{
  "sizes": [
    5,
    32,
    32,
    32,
    1
  ],
  "perceptrons": [
    [
      {
        "weights": [
          0.385094785766269,
          0.6601896831474452,
          -0.23843244163634258,
          0.349096492685093,
          0.09946300885742687,
          0.8681477662819224
        ],
        "bias": 1,
        "learingRate": 0.3
      },
      {
        "weights": [
          -0.9938681282334141,
          0.8198371688366519,
          -0.9666745844407885,
          -0.4446008991097523,
          -0.37784098373377395,
          -0.3370224568868747
        ],
        "bias": 1,
        "learingRate": 0.3
      },
      {
        "weights": [
          0.16064170931768107,
          0.3572053984357737,
          0.8114508327359307,
          0.44081820300837826,
          -0.5024399801093327,
          0.7380745303071161
        ],
        "bias": 1,
        "learingRate": 0.3
      },
      {
        "weights": [
          1.3410991304970348,
          0.0361391419039192,
          0.44690917964403054,
          1.5641619212822753,
          1.6460589247938593,
          1.032532635464734
        ],
        "bias": 1,
        "learingRate": 0.3
      },
      {
        "weights": [
          -0.41839399563995494,
          0.060472090896542596,
          -1.8189919322488963,
          -1.0145756744215282,
          -1.9016320337059205,
          -1.2654996351918566
        ],
        "bias": 1,
        "learingRate": 0.3
      },
      {
        "weights": [
          1.0823026498382955,
          1.2226834759058804,
          0.6380473316059669,
          0.31115266573091516,
          0.5865669962228584,
          1.2999615442370933
        ],
        "bias": 1,
        "learingRate": 0.3
      },
      {
        "weights": [
          -0.2069945154372541,
          -0.4642405698183687,
          -1.1876458280323603,
          0.051775093620224144,
          -1.9398400873516102,
          -1.7997299973542038
        ],
        "bias": 1,
        "learingRate": 0.3
      },
      {
        "weights": [
          0.8475404419700276,
          1.1407353948242056,
          0.6548184042308351,
          1.2685480547220558,
          0.0014684126050772406,
          1.5001234223390347
        ],
        "bias": 1,
        "learingRate": 0.3
      },
      {
        "weights": [
          -0.2981787678101293,
          0.6579552811539058,
          0.901663898066003,
          0.4032310440792437,
          -0.3447789967366983,
          -0.6293955303959162
        ],
        "bias": 1,
        "learingRate": 0.3
      },
      {
        "weights": [
          -0.1912207760350686,
          0.18142104099504586,
          0.6822336487102572,
          0.774820758696571,
          0.6884777693153818,
          0.47862610111294046
        ],
        "bias": 1,
        "learingRate": 0.3
      },
      {
        "weights": [
          0.7783651284604081,
          -0.14243812982173543,
          0.9631684869096828,
          0.07816787746735665,
          0.06241272773331952,
          1.1066494011405106
        ],
        "bias": 1,
        "learingRate": 0.3
      },
      {
        "weights": [
          -0.42186104617387477,
          0.3389554901005001,
          0.0449507551187982,
          0.4745252924018928,
          -1.392530508930347,
          0.43589652467757745
        ],
        "bias": 1,
        "learingRate": 0.3
      },
      {
        "weights": [
          -1.5631210853099482,
          -1.3746608030265404,
          -0.5619395033312475,
          -0.14373942251749305,
          -0.6024277106029747,
          -0.8844342474151574
        ],
        "bias": 1,
        "learingRate": 0.3
      },
      {
        "weights": [
          -0.9536297009323955,
          -0.41048054611853235,
          0.23914761843635013,
          0.2215109557844026,
          0.8766035912069805,
          -0.7064680364103153
        ],
        "bias": 1,
        "learingRate": 0.3
      },
      {
        "weights": [
          0.8945789701793654,
          -0.03330000053625515,
          -0.11406303163894371,
          0.6232518601318633,
          -0.06691746990067982,
          -0.8188074383923971
        ],
        "bias": 1,
        "learingRate": 0.3
      },
      {
        "weights": [
          -0.8934785295418775,
          0.6185297572259483,
          -0.7364001542290488,
          0.7164400118722547,
          0.6285734572321755,
          0.9828152563920867
        ],
        "bias": 1,
        "learingRate": 0.3
      },
      {
        "weights": [
          0.40838995017091984,
          -0.20997377058193356,
          0.15630633136691063,
          0.8188979866083952,
          0.023304937567091066,
          0.09323260352993001
        ],
        "bias": 1,
        "learingRate": 0.3
      },
      {
        "weights": [
          -0.9406905039073119,
          0.08809042651668486,
          0.9822331531047257,
          0.09174895030824803,
          0.8472329624552093,
          -0.5478798466959112
        ],
        "bias": 1,
        "learingRate": 0.3
      },
      {
        "weights": [
          -0.6666061939535184,
          0.2560511687517426,
          -0.6639653134910977,
          -0.20092382504795658,
          -0.2826684465951046,
          -0.6925416896356271
        ],
        "bias": 1,
        "learingRate": 0.3
      },
      {
        "weights": [
          -0.7823333299972419,
          -0.794492956340827,
          -0.45410269098112943,
          -0.04645391776246166,
          -0.19627538957013968,
          0.9267453946600774
        ],
        "bias": 1,
        "learingRate": 0.3
      },
      {
        "weights": [
          0.579173870520826,
          0.5478005106022201,
          0.9280445657562195,
          -0.5869704127500128,
          1.2789517879045587,
          0.9400282401622815
        ],
        "bias": 1,
        "learingRate": 0.3
      },
      {
        "weights": [
          0.4924785072640607,
          0.39900895715970464,
          0.38967507889870134,
          0.42700283634759684,
          -0.11810434641234568,
          0.8866136588226086
        ],
        "bias": 1,
        "learingRate": 0.3
      },
      {
        "weights": [
          0.9032143224093909,
          -0.015890718353102518,
          -0.024549258232201332,
          -0.23110714249265651,
          0.5467650548559932,
          0.2976355567218225
        ],
        "bias": 1,
        "learingRate": 0.3
      },
      {
        "weights": [
          0.45336524642173437,
          -0.3487875556225455,
          -0.49654861893124735,
          -0.46214304014353713,
          -1.2253279296010327,
          -0.09830858852071023
        ],
        "bias": 1,
        "learingRate": 0.3
      },
      {
        "weights": [
          0.11613800781394001,
          -0.7504111093026129,
          0.09118661315024079,
          -0.7477076562989233,
          -0.7985725962629888,
          -1.5288691636583494
        ],
        "bias": 1,
        "learingRate": 0.3
      },
      {
        "weights": [
          0.9299810766374654,
          -0.3499704480463186,
          0.8175028084007354,
          0.5752018561749788,
          -0.7063262419948906,
          0.8422463014499177
        ],
        "bias": 1,
        "learingRate": 0.3
      },
      {
        "weights": [
          0.37451786241667984,
          -1.022269762459338,
          -0.0273344519570502,
          -0.1813905918009242,
          -0.8081166784240486,
          -0.5866953551990104
        ],
        "bias": 1,
        "learingRate": 0.3
      },
      {
        "weights": [
          -0.732825748992135,
          0.5143600801291348,
          -0.9351136873809618,
          -0.5908463021915233,
          -0.7305507376573521,
          -0.33394568843058403
        ],
        "bias": 1,
        "learingRate": 0.3
      },
      {
        "weights": [
          0.32854220009728197,
          -0.058045499152630686,
          -0.07781013419155647,
          0.5031716367095176,
          0.6454628454062159,
          -0.5542039461771213
        ],
        "bias": 1,
        "learingRate": 0.3
      },
      {
        "weights": [
          -1.1138068795360407,
          -1.5433008215343698,
          -0.9916342397288602,
          -1.3667753552449304,
          -1.5298806030474847,
          -1.2360101256083844
        ],
        "bias": 1,
        "learingRate": 0.3
      },
      {
        "weights": [
          0.10141559541428391,
          0.7775659691608787,
          -0.9078499332835723,
          -0.3066728851322358,
          -0.11737724808150674,
          0.7787570468258669
        ],
        "bias": 1,
        "learingRate": 0.3
      },
      {
        "weights": [
          -0.3288355406858474,
          0.29751841909502463,
          0.5944387725801263,
          0.5101486847824619,
          0.9786949009859138,
          0.4402443210733722
        ],
        "bias": 1,
        "learingRate": 0.3
      }
    ],
    [
      {
        "weights": [
          0.22795435059214197,
          -0.9589247403580377,
          -0.8094874619907166,
          -0.6363169665622808,
          -0.47758210805089707,
          -0.6124874672040046,
          -0.23844788759686475,
          0.24482388767778795,
          0.09301339629488403,
          -0.9794230255504157,
          0.8004749856778903,
          -0.8531553837381511,
          -0.2806619026923127,
          0.036895702012093246,
          -0.1913698323372759,
          -0.057404850030105425,
          0.8840343785114171,
          -0.5419324159763983,
          0.17326220650621993,
          0.43924595854289183,
          -0.05345694046981331,
          0.24658736447293927,
          -0.3717044081279255,
          -0.01626975641770878,
          0.6284413318570494,
          -0.4511769007453994,
          -0.302229688387051,
          0.9483246561644609,
          -0.25407147474107417,
          0.18075399215205268,
          0.759544411094847,
          -0.9339040532363758,
          0.8346641097274135
        ],
        "bias": 1,
        "learingRate": 0.3
      },
      {
        "weights": [
          0.29205185897477426,
          -0.06941170183539169,
          0.646311760669986,
          0.9041043129918509,
          0.5336673011072128,
          -0.35280981181952065,
          -0.2471733179236013,
          -0.3031896541553656,
          -0.04627602967151612,
          0.6835064779716928,
          -0.1370092005502328,
          -0.4607582128997616,
          -0.31140769709425076,
          -0.8294939911384129,
          -0.7526804633930246,
          -0.8478946452842746,
          0.43625610603751186,
          -0.5153830995234041,
          -0.2975059000463176,
          0.5294818022903516,
          0.7357834018883871,
          -0.62180824810387,
          0.9167685761291833,
          -0.7203629249871,
          0.8273618812276702,
          -0.08150774265013361,
          0.25406955296523215,
          -0.5640567539830346,
          -0.35685330153753014,
          -0.6596483457295395,
          -0.1018726721233647,
          -0.5854557934996056,
          -0.9808365651049415
        ],
        "bias": 1,
        "learingRate": 0.3
      },
      {
        "weights": [
          0.7861325330008566,
          0.08957777694451918,
          0.031155806109089745,
          -0.9596712462267267,
          -0.6468542405411033,
          0.07073345881963222,
          0.845352001524684,
          0.6275657912977421,
          -0.0462459861703417,
          0.2745976535620511,
          0.25896631934749115,
          -0.15935840308544735,
          -0.8680944793239744,
          -0.051032302844407074,
          -0.5372919266239684,
          -0.13881202371505008,
          -0.5604084904560023,
          0.5513748088150203,
          0.3589998065879172,
          0.9320005440794308,
          0.965922982530397,
          0.15793623856667693,
          -0.010582669459584526,
          0.21649848031015928,
          -0.5033326498169708,
          -0.28682994895816183,
          0.31878037386226277,
          0.6476397825219036,
          0.4468292622826975,
          -0.7971042523416987,
          -0.5477925304714946,
          0.5342671614903067,
          -0.12123166213781555
        ],
        "bias": 1,
        "learingRate": 0.3
      },
      {
        "weights": [
          -0.6876471384563345,
          -0.13636714613032108,
          -1.3083062419728124,
          -1.4556886486761118,
          -0.3750938423835888,
          -0.4020707816825664,
          -0.5277003280651664,
          -0.1950410918953578,
          -0.2837125225575843,
          -1.3277979009286276,
          -0.9836646102705235,
          -1.018690592873459,
          -0.02347215103656719,
          -0.549570589958503,
          -1.3286228758581036,
          -0.5629274854952642,
          -0.03038602937458812,
          -1.8574778981583346,
          0.04080288334382809,
          -0.8656339295721285,
          -0.5433248302804223,
          -1.1130025372633372,
          -0.7524135243019843,
          -0.9093594242227572,
          -1.8197399870312498,
          -1.477680757378958,
          -0.5716890596010451,
          -1.3410113904637018,
          -0.5878291152696891,
          -1.7955652151943138,
          -1.7145346825321828,
          -1.6682434423218444,
          -1.4037301152531567
        ],
        "bias": 1,
        "learingRate": 0.3
      },
      {
        "weights": [
          1.309371867917462,
          2.1367978863344224,
          0.8206262433818723,
          0.8450340376752656,
          0.6752412318040784,
          1.4124201965783634,
          1.319744087397205,
          1.0477109474112236,
          1.7787167810076583,
          0.8138345870514487,
          1.4504656404965472,
          2.1468558307796015,
          0.5607638666275241,
          0.2968167172199472,
          0.2739000121681294,
          2.0830766333006823,
          1.1927069028899235,
          2.1321223370825164,
          2.138650231364644,
          0.6335821019227645,
          1.8708655379686352,
          0.7632643274471373,
          1.005886661693999,
          1.9062272210388436,
          0.3096562132394798,
          0.9972439523417225,
          1.8162809319442035,
          0.5570498715038568,
          0.7429274623429056,
          0.3030800505826541,
          2.137165684796963,
          0.3937520140528732,
          2.1600851603150852
        ],
        "bias": 1,
        "learingRate": 0.3
      },
      {
        "weights": [
          0.9903835793724376,
          1.0368149571489726,
          1.1893197563873628,
          1.317103585435651,
          1.1330429931707475,
          0.7838826162230577,
          0.6830495735542526,
          1.5602535814244192,
          1.7888348917998442,
          1.2261849809985654,
          0.8616468093059995,
          0.549033946579002,
          0.35572875283029814,
          0.9894343849932912,
          2.1472553951677287,
          0.7570061003463251,
          1.0189534898943466,
          2.0080578075086195,
          1.241735017721108,
          2.1349669560503033,
          0.8451933826817779,
          0.474715443359905,
          0.703297663110749,
          1.6473781726453307,
          2.1732579634546,
          1.3745720381833344,
          0.5875822373463322,
          1.8456961078093905,
          0.5994117074355789,
          1.1037098598979944,
          2.00784629849907,
          0.5347401602886657,
          1.4255262589078832
        ],
        "bias": 1,
        "learingRate": 0.3
      },
      {
        "weights": [
          -1.8858272706922343,
          -2.289600348060159,
          -1.8113730160362027,
          -1.634987941485642,
          -0.8555204701405681,
          -1.999023621591546,
          -1.5657123616573174,
          -1.9512336666845855,
          -0.5792133826947508,
          -1.2942662539504735,
          -1.504189102025009,
          -1.0341590081872925,
          -0.5374237099973298,
          -2.004271547072434,
          -1.1846907655418724,
          -0.668443238991399,
          -1.2503747410823478,
          -0.7987289324069478,
          -0.8744436801815096,
          -1.403116590051471,
          -0.34412774583545724,
          -1.819610782321401,
          -0.5578487409202642,
          -2.116271223297739,
          -1.60294197382423,
          -1.2510773576270102,
          -1.3161588305799365,
          -0.45666019259395574,
          -1.7917290715293426,
          -0.354208048876973,
          -1.7427312443904648,
          -0.7836313546878406,
          -0.5927222381864019
        ],
        "bias": 1,
        "learingRate": 0.3
      },
      {
        "weights": [
          0.23334706312230935,
          -0.5297147069889654,
          0.14224152625216968,
          0.9963165088617685,
          0.744643377969556,
          -0.9542967928036914,
          -0.39441261529854543,
          0.6647612129335183,
          -0.9883316513912157,
          -0.16694718712211554,
          -0.48915382219823433,
          0.2740646683033927,
          0.8817639524720624,
          -0.5996181061829282,
          -0.7099526163575716,
          -0.18164980539479902,
          -0.7412830772720551,
          -0.2783500943434829,
          -0.2787730385764462,
          0.5868403418707246,
          -0.7560439985335066,
          -0.1923799752383779,
          -0.0011000563311442946,
          -0.25194304484564567,
          0.026704225167973217,
          -0.07848366222221292,
          0.8214927015138112,
          0.6719792585998854,
          0.6123318535000366,
          0.13080705037936546,
          -0.2695212332807597,
          -0.46433126024680105,
          -0.19754684004016898
        ],
        "bias": 1,
        "learingRate": 0.3
      },
      {
        "weights": [
          1.4645519064998052,
          -0.14117555251325742,
          0.8829203903381218,
          0.3396930604715114,
          0.39764779352706814,
          1.5099561316166414,
          1.1338676114822168,
          0.17539202389394015,
          0.4838430839012071,
          0.5421778547858991,
          -0.06832149819606448,
          -0.0519710509137723,
          1.0474857928833727,
          1.2625895139090146,
          0.07382665555167289,
          0.9143365015607157,
          0.03383345316921549,
          0.02354023247974446,
          -0.23946917816173618,
          -0.07388683630200044,
          0.8874062524320139,
          0.2918279358133731,
          -0.4635083952709502,
          -0.26933275346280805,
          0.13101015396863014,
          1.4333144989998483,
          0.5005392657787238,
          -0.14303118439886653,
          1.3570501374790087,
          0.38931769470424493,
          0.9464164439912661,
          -0.3620357698217638,
          -0.429789346405975
        ],
        "bias": 1,
        "learingRate": 0.3
      },
      {
        "weights": [
          -1.5202596904619359,
          -1.7934690311164991,
          0.029575665426073705,
          -0.8965571177790705,
          -0.5078224384000758,
          -0.8994340321090157,
          -0.6206381054458454,
          -0.8500067736546661,
          -1.6822198543262483,
          -0.20195369441771804,
          -0.628227014866757,
          -0.835152776245387,
          -0.5910155549488016,
          -1.539066183911221,
          -0.33976939964773756,
          -0.014396783165484095,
          -1.8198955880030496,
          -1.6106974398461942,
          -0.8914749200073668,
          -0.5824988854040085,
          -0.5693158964768799,
          -0.6601004237300621,
          -1.0994257954483362,
          -0.4000610082972007,
          -0.4524986942566369,
          -0.7433962596217909,
          -1.2091336840044056,
          -0.5343838209365681,
          -1.3341436294930498,
          -1.104134784564307,
          -1.0154376559464047,
          -1.1768303038463488,
          -1.6957226370312322
        ],
        "bias": 1,
        "learingRate": 0.3
      },
      {
        "weights": [
          -0.5005236925066305,
          0.06673421465398022,
          -0.3014161753853335,
          0.3617750403328004,
          -0.899555448447424,
          0.4076502534746056,
          -0.4821922828508822,
          -0.15184793344036818,
          0.6388936034088357,
          0.8524649890994302,
          0.7295191006057675,
          0.5584244644527487,
          0.42631952142705076,
          0.9737438087187718,
          0.7519911922976545,
          0.35570971797812057,
          -0.9314095331303855,
          0.9770999777310005,
          -0.33225497539797777,
          0.7241483822927992,
          -0.4275491828517066,
          0.19252015400797395,
          -0.28586207838761846,
          -0.47684442882385314,
          0.040149834697131404,
          -0.6042778590271483,
          -0.5357535957279822,
          0.6259901168927748,
          0.473271213327501,
          0.0202462506824288,
          -0.9625799108417521,
          0.31142643234424483,
          0.4544747110725158
        ],
        "bias": 1,
        "learingRate": 0.3
      },
      {
        "weights": [
          0.35431067707730435,
          0.9813062948425832,
          -0.5589171864987432,
          -0.10284883600370787,
          0.10714001123542216,
          0.6976113674761737,
          0.3346974832634322,
          0.43159097864713436,
          0.8588299602531504,
          0.8922075413994777,
          0.9930174059946726,
          -0.8168172590871445,
          -0.25008971283110304,
          -0.7507430693075658,
          -0.7431325009256251,
          0.23550954567185478,
          -0.542939758036435,
          0.35504581767276466,
          0.9875780135422487,
          -0.34849548293832866,
          -0.9657684178762187,
          -0.85796516652348,
          0.24525559802356023,
          -0.7735668256018724,
          0.16139032618769722,
          0.554061486125812,
          -0.9270989046491556,
          0.051462480018406254,
          0.9628707067954427,
          0.3790435317688865,
          0.37756275749773405,
          0.9857792844760214,
          0.6074792181470348
        ],
        "bias": 1,
        "learingRate": 0.3
      },
      {
        "weights": [
          -0.01338227402285419,
          0.22457074929379717,
          -0.07754617791006879,
          -0.3877715306278535,
          -0.40390044300871075,
          -0.15747754706705486,
          0.5153121947344097,
          -1.1449197039135441,
          -0.17955286430280548,
          0.438219251199472,
          0.35955059580418336,
          -0.16952359469865597,
          -1.1358149576212337,
          0.2884828585293078,
          0.7907565346657539,
          0.8072683261945923,
          -0.42076196335247706,
          0.7263458689022926,
          -0.5497541614299273,
          -0.9087513272578152,
          -0.837943673097906,
          0.023478203838839473,
          0.7101737056535127,
          0.1968660043118331,
          0.6808406584098523,
          0.3803693206247192,
          0.5823817241127252,
          0.8027973045315937,
          -1.085193821543438,
          -0.4339965095211942,
          0.7021622146831632,
          0.4466737556189688,
          0.7816118900395645
        ],
        "bias": 1,
        "learingRate": 0.3
      },
      {
        "weights": [
          0.30157624035992425,
          -0.8904127329871132,
          0.647060721104256,
          -0.5536860408003843,
          -0.1118087685416067,
          -0.03646129328734116,
          -0.4858736620256128,
          0.5626828681308931,
          0.6843977709579914,
          -0.4434518036555124,
          -0.14299867109872677,
          0.3552439251899471,
          -1.0460230805256954,
          -0.8166835822082272,
          0.6911930512107007,
          -0.18099949302069973,
          -0.13695097761445352,
          0.8063885944648339,
          -0.262119066113387,
          -0.5089448073602894,
          0.5268728495718848,
          0.20840624324920842,
          -0.9097656747450942,
          -0.8664844940581369,
          -0.7171399245478436,
          0.38316768484768415,
          -0.31393302088894615,
          -0.8895822915810401,
          0.6751047487118353,
          0.2872594233267005,
          0.5267096613053113,
          -0.7186323979085021,
          0.17711119766572025
        ],
        "bias": 1,
        "learingRate": 0.3
      },
      {
        "weights": [
          0.7097344319684944,
          1.1200768502377096,
          1.1274997127953839,
          -0.36433267717678586,
          -0.1148646170312535,
          0.16779026948127473,
          -0.3860696826877792,
          1.1348859097342174,
          0.5807726959350918,
          0.3629420082897954,
          1.2105372093410347,
          0.146869397400188,
          1.4520932161203932,
          1.307026196936734,
          0.7396346641173794,
          -0.2835506764923572,
          -0.02361954587212134,
          1.0490913036014962,
          1.3522291246202887,
          1.4620098551505545,
          1.0277385169923008,
          1.033121330824072,
          0.6920963597932666,
          -0.3628734967242031,
          1.3448251069832775,
          0.5509563437823277,
          1.1258961286661648,
          0.07841920937947844,
          1.3936484721785476,
          -0.38854321975724826,
          0.3579386417219781,
          0.5505599738334337,
          0.9235990777744898
        ],
        "bias": 1,
        "learingRate": 0.3
      },
      {
        "weights": [
          0.9512328612160097,
          -0.5830339395814845,
          0.7416708506772958,
          -0.09010517483275615,
          -0.3136883091530991,
          -0.29250804042777867,
          0.4894885168877825,
          0.9252426663650457,
          0.04324366083661202,
          0.4082386873492032,
          -0.6292219461791841,
          0.09630655596333781,
          0.7110653278912547,
          0.40243091501747186,
          -0.14809180144382994,
          0.7005650921049158,
          -0.7060192509590055,
          0.6730332473254506,
          -0.47299460564774476,
          0.6246290608123206,
          -0.7830932357252882,
          -0.6969533520296252,
          0.9250688376594254,
          -0.33372696548739667,
          -0.7834280482121256,
          -0.2504010171812294,
          0.5836197886783396,
          -0.10831511920926129,
          -0.8340371251069785,
          0.49642677334445784,
          -0.1637254187954138,
          0.944917186063698,
          0.40178847595079015
        ],
        "bias": 1,
        "learingRate": 0.3
      },
      {
        "weights": [
          1.6736252457951055,
          0.18111366208841817,
          0.9534711218635974,
          1.1000505451529587,
          -0.04937730976711441,
          0.6534631577697709,
          -0.21647505882265827,
          -0.24124865217364988,
          1.711863836938973,
          0.5563166007721376,
          0.7782116971233148,
          1.2358170851060275,
          1.1729181679927936,
          0.1469546947013085,
          0.17975808876454158,
          1.1223209161765042,
          0.647098864992973,
          0.924502786798072,
          1.0526913727282028,
          1.1426233977757145,
          1.2092745292011364,
          1.7185543364556817,
          1.3603434425188436,
          0.9578364053041595,
          0.5842050291815339,
          -0.16931978291791117,
          0.11373083240775994,
          1.040717111755264,
          0.7620614717026277,
          0.16364180414567464,
          0.8883222386012446,
          0.7329252972371152,
          1.315997657378527
        ],
        "bias": 1,
        "learingRate": 0.3
      },
      {
        "weights": [
          0.813075695131452,
          -0.892942623346511,
          0.01651702051314885,
          -0.29742483210963,
          -0.04664191420647823,
          0.12422887613118894,
          0.9583199166639931,
          0.3898431702213303,
          0.35289666653184515,
          0.2555388775386893,
          -0.9289856739569209,
          0.8029068607436969,
          -0.8471765552072617,
          0.48297459687624844,
          -0.9317918653579351,
          0.9512165306668399,
          0.29299004839674536,
          -0.41515372077327495,
          -0.21829019922037451,
          -0.1943599490475827,
          0.04790890700597705,
          -0.210507031352845,
          0.2312566029954075,
          0.2715774423731312,
          0.4921323076303392,
          0.801372284704235,
          0.06157037573861501,
          -0.36897964615623824,
          -0.7072160370977696,
          -0.26802631462537363,
          -0.6152097494038555,
          -0.9547325584754507,
          -0.5516733993672163
        ],
        "bias": 1,
        "learingRate": 0.3
      },
      {
        "weights": [
          -0.8140524306418477,
          0.17838169077635424,
          -0.9999453678689774,
          -0.28394642990560737,
          -1.0937595390795538,
          -1.190507630202244,
          -0.06179236494835427,
          -0.5627050871879646,
          -1.3826571209682843,
          0.06884402374139675,
          -0.7537651367958613,
          0.3251556502565074,
          0.038156182550241,
          -0.5001995539285065,
          -0.2537259383147079,
          -0.6436476856889857,
          -0.04569501633709949,
          -1.3773186746928214,
          0.24503333843378527,
          -0.1608888195283833,
          -1.525962480882579,
          -0.35287337573269495,
          -1.5705604493040242,
          -0.04254632760910981,
          -0.567020028896366,
          0.30156301082623793,
          -0.4972292860010623,
          -0.9625986806406677,
          -0.7294130279728086,
          -0.08675975317940443,
          -0.9575783685000832,
          0.08314102888469277,
          0.0619673030145198
        ],
        "bias": 1,
        "learingRate": 0.3
      },
      {
        "weights": [
          0.16755072356471867,
          0.969341448764673,
          -0.4721057015010093,
          0.5181544998916658,
          -0.5567875565192391,
          0.11490546573088656,
          -0.58636343201113,
          0.5206013851729692,
          -0.5227494999057964,
          -0.3640730661668261,
          -0.15459036801322146,
          0.1110481502496734,
          -0.8627476807969909,
          0.24955034287500144,
          0.5440660228616192,
          0.3568935319642943,
          0.09235594037179684,
          -0.4876891598703996,
          -0.7813713981401009,
          0.2612998440055727,
          -0.728682614671555,
          0.7718745181493305,
          -0.019573750874023244,
          -0.12854959049690828,
          0.9397489826535002,
          0.7655762343063515,
          -0.27885835806402337,
          -0.5021303873132914,
          -0.08950565057133542,
          -0.411244868834435,
          -0.9821245096431759,
          -0.20430942177701672,
          -0.1842202991400952
        ],
        "bias": 1,
        "learingRate": 0.3
      },
      {
        "weights": [
          -0.42961632919453274,
          -0.6926110366428224,
          -0.011591830783807211,
          -0.22410358473172476,
          -0.09294875952597392,
          -0.32522094742513064,
          -1.2533552130157166,
          -0.6215985186919673,
          -1.5101100137366879,
          -0.21522017542636895,
          -1.911235914822135,
          -1.390741026541729,
          0.0006300125471052631,
          -0.30788753173201266,
          -1.0195841708997948,
          -0.7015717560704968,
          -1.7889331649812559,
          -1.702272578342717,
          -1.1024260487410031,
          -1.1105446924919686,
          -1.1087488752800185,
          -0.6188441751201665,
          -0.7925486397622938,
          -0.9266666385632716,
          -0.3339363282526939,
          -1.1845090576664727,
          -0.758870392475536,
          -0.9056343624349443,
          -1.1120862490197356,
          -1.153180535010816,
          -0.91883986699301,
          -0.917522875448729,
          -1.457728152032825
        ],
        "bias": 1,
        "learingRate": 0.3
      },
      {
        "weights": [
          1.0351450664202426,
          1.142817965880338,
          1.941517712863703,
          1.8684921055149304,
          0.7634171780144778,
          1.5360874954157961,
          0.5327529190230686,
          1.907326261686359,
          1.1453829387071477,
          0.7635782066390453,
          2.25922850999799,
          0.3469112693169931,
          1.1434021328722026,
          0.8424953650626881,
          0.3451959321045952,
          1.1662601687469043,
          0.8944152963179435,
          2.08305174974061,
          1.943633776861521,
          2.1369038354294663,
          0.5954562575279452,
          0.5744014683407475,
          0.4474953939804549,
          1.4822540376914204,
          0.7613859643508065,
          1.6925448351740577,
          1.311031204396484,
          1.502772760900938,
          1.081697715479327,
          2.207231413819739,
          0.991203616187545,
          1.5528523314198304,
          0.9180665104721717
        ],
        "bias": 1,
        "learingRate": 0.3
      },
      {
        "weights": [
          -1.5789965662021288,
          -1.1143230100290213,
          0.3110821789597078,
          -1.4353153299433972,
          -0.5422947500869446,
          -0.8561083119942259,
          -1.2513133548617748,
          -1.0576544646683588,
          -1.3836891944731011,
          -1.498325823732214,
          0.32177765738897923,
          0.3085404868974253,
          -1.3010338079806756,
          -0.21766663624352844,
          -1.5870122589578264,
          -1.0867372761528915,
          -0.29742158519314943,
          -0.09345443001469222,
          -0.7223311316334979,
          -1.2631695190864591,
          -1.258213996883434,
          -0.552645904211444,
          0.2245831096960118,
          -1.4982960386365969,
          -0.29831890568648634,
          -0.6691014073487698,
          -1.1566364549131083,
          -0.9413910101839349,
          -1.3074358133826651,
          -0.9891231865230115,
          0.05719069516831565,
          -0.24955946119307004,
          0.30471565809285206
        ],
        "bias": 1,
        "learingRate": 0.3
      },
      {
        "weights": [
          -0.9282963572435254,
          -0.8054025884896241,
          -1.623413184739888,
          -0.7568634189957595,
          -1.6582962164049118,
          -0.4268697892380091,
          -1.8596376580871765,
          0.027649146808887526,
          -0.5984284921612462,
          -1.7806284416640876,
          -1.3633593141798248,
          -0.06788412545362332,
          -0.9573730289100406,
          -1.6836850208120344,
          -1.7416443633550216,
          0.024601832958529357,
          -1.5934923846384441,
          -0.21358450506545523,
          -1.2348408012205119,
          -1.0734482870366935,
          -0.2954100018621686,
          -0.12110183158437993,
          -0.3708097184760719,
          -0.438581349029302,
          -1.0882282088317825,
          -0.5554923766899389,
          -1.8152238336537954,
          -1.8350276250400475,
          -1.1017868407145839,
          -0.5022593845527985,
          -0.8594698988315761,
          -1.4550350285186013,
          -1.1071406640854855
        ],
        "bias": 1,
        "learingRate": 0.3
      },
      {
        "weights": [
          -0.6248239550656081,
          -0.44154152604262853,
          -0.747613261321693,
          -0.6866133832554597,
          0.643490366977002,
          -1.2022650067976688,
          0.17178809740077394,
          -0.1419745418071181,
          -0.8365334466063685,
          -0.6083894152786042,
          0.40851404338465924,
          -0.9151921198735682,
          -1.210366177423964,
          0.11519287779470755,
          -0.37068029722320617,
          -1.02588886681442,
          -0.7429651290693973,
          -0.5441514538172192,
          0.24587898523542684,
          -0.19771991494991203,
          -0.06985585749660705,
          0.09562941633239497,
          0.24198369881014647,
          -0.19761151098373197,
          0.4582636517805123,
          0.07065274135395683,
          -0.3613280053618766,
          -0.18869216854279625,
          -0.44657732446762344,
          0.1880150934397231,
          0.5637375314813302,
          -0.6026533233679126,
          0.1320687275630088
        ],
        "bias": 1,
        "learingRate": 0.3
      },
      {
        "weights": [
          0.38093250732387274,
          0.7810758730867136,
          1.0848081876239046,
          0.34172125574631096,
          1.2916772856581087,
          1.2311909808405246,
          0.6391443231962546,
          -0.08422663113085749,
          1.169547050616719,
          0.21855751540060497,
          1.0682878919953551,
          1.4180957204873619,
          1.2190473206218382,
          1.6184989576304734,
          0.6641419608282209,
          0.7913520463354589,
          1.649651782282484,
          0.1550523822740728,
          -0.11349657218575171,
          0.6727114604007132,
          1.1522705241690114,
          1.0605848959129385,
          0.31003597582969755,
          0.04081841132493569,
          0.4935935996862151,
          0.2797476201053759,
          1.5770017758531307,
          1.7122853093436259,
          0.394206182028106,
          1.543545623383364,
          0.4039869146419215,
          0.6956398686676666,
          1.2193347503717544
        ],
        "bias": 1,
        "learingRate": 0.3
      },
      {
        "weights": [
          -0.8876011295668014,
          -0.7476194606512645,
          -1.3228220611150987,
          -1.0020656093302085,
          -0.4114922900622986,
          -0.8484551881536895,
          0.16108287062679727,
          -1.5503525872746091,
          -0.5467961281959912,
          -1.401313297505756,
          -0.43834869094190454,
          -0.28147323109487843,
          0.08030794665088559,
          -1.775515905789761,
          -1.418861605864353,
          -0.2101222746774294,
          -0.8805580391041294,
          -1.2035140307744872,
          -1.503243579639396,
          -0.7704300258505525,
          -0.4112006608754828,
          0.20049002991040066,
          -1.0919748724534992,
          -1.6330766611229213,
          -0.5975322341491536,
          -1.158756209960535,
          -1.269043236605413,
          -0.2900971998383004,
          -0.05098302494343887,
          -0.2611629508560718,
          -1.0735195612635389,
          0.15864985353780758,
          -1.7665834474204867
        ],
        "bias": 1,
        "learingRate": 0.3
      },
      {
        "weights": [
          -1.258512578635747,
          0.6019134430715813,
          -1.064247789644968,
          -0.4742274647392688,
          0.5773792079758233,
          -0.450454416473574,
          -0.4686712660477119,
          0.537721694460755,
          -0.3340977917888477,
          -0.2690121187301897,
          -1.2647022491623745,
          -0.8771765160428977,
          -0.49117454676333017,
          0.027132343837418915,
          -0.725800788973781,
          0.206369984683052,
          -0.536355439900198,
          -0.47375462026985327,
          0.1596810854425854,
          -0.2629011488147106,
          -1.1603313677081473,
          -0.16894928460976377,
          0.590559186634235,
          0.21441243800371979,
          -0.3189078285412137,
          -0.37022182579337315,
          -0.3197706266180309,
          0.11274434660005461,
          0.4018431639125555,
          -0.5658143737654293,
          -0.3991088189316754,
          -1.1895419466473527,
          0.5719997611866066
        ],
        "bias": 1,
        "learingRate": 0.3
      },
      {
        "weights": [
          0.03315935257959257,
          -0.4148490129142477,
          0.876170693891503,
          -0.42581535526968395,
          -0.7037125558549904,
          -0.3203930310584595,
          0.4615077450997269,
          0.7882497394852401,
          0.38689564023692347,
          -0.48569915750653836,
          -0.9187476688845462,
          0.32199046250110186,
          -0.3472578666483299,
          0.8147683320053045,
          0.5247050457930542,
          -0.009445349068414988,
          -0.8037126911936814,
          0.4042491506982575,
          -0.813082280288187,
          -0.8160238975021685,
          0.5270852475365992,
          -0.01359422996071702,
          0.5334812342054907,
          0.981289214982668,
          -0.11514442361271593,
          -0.3862176516259139,
          0.8971440317367785,
          -0.5808108952975735,
          -0.8754580537679622,
          0.4972919281003474,
          -0.8234928485464961,
          0.9523887064141374,
          -0.12725343317642013
        ],
        "bias": 1,
        "learingRate": 0.3
      },
      {
        "weights": [
          0.2965256636798932,
          -1.0004889000785284,
          0.505474114816344,
          -0.449095665403036,
          -0.22875061271484132,
          -1.0467806630303604,
          0.03409565999547093,
          -0.07745799445119195,
          -1.196810796865249,
          0.7228815775142925,
          -1.1268886058269847,
          0.29529401465973715,
          0.5738625403016782,
          0.20081032475581173,
          -1.165794861166101,
          0.1248914569405768,
          -0.8776766930709021,
          -0.4483708158418138,
          0.44922762350094025,
          -0.7555245964169544,
          0.5650891436932861,
          -0.04009606389036868,
          0.7433522146974902,
          -0.5980518478881174,
          0.32533242300754894,
          -0.7697736406728914,
          -0.8949071308644947,
          -1.0402890125636608,
          -0.3209390932272709,
          -0.9535889391194319,
          0.20285188620571448,
          -0.9372305466501598,
          -0.3624661940745515
        ],
        "bias": 1,
        "learingRate": 0.3
      },
      {
        "weights": [
          0.34745322363097,
          0.00796785411070644,
          1.4724838549419674,
          0.758029482943031,
          0.7353013128328634,
          0.9305393427709294,
          1.5112873368243953,
          0.20933193826402885,
          1.4664093551505313,
          0.36581468848631005,
          0.7443419167245242,
          -0.17432318131026525,
          1.3869784195520753,
          0.24945696027219322,
          1.445819979212021,
          1.7524441372369752,
          0.6508189786682856,
          1.637065853713643,
          0.5752232727427624,
          0.8013656975605508,
          0.8757080960427901,
          1.2646865095825093,
          0.7367765077290005,
          0.8762358792312939,
          0.9123041236939642,
          0.2556945377927433,
          1.1951347368007714,
          -0.18709113170564473,
          0.4504464322834991,
          0.9302186240874164,
          1.776960791837256,
          0.2556664173343397,
          0.34965464715933026
        ],
        "bias": 1,
        "learingRate": 0.3
      },
      {
        "weights": [
          0.47427536921953406,
          -0.3232733903610523,
          0.3016483560187275,
          0.009095233379420087,
          0.25687921253823776,
          -0.5252725253796449,
          1.2389919067057367,
          1.127953802537185,
          -0.07946932465993983,
          0.50354561236583,
          1.0956736546066614,
          -0.0860558999700296,
          0.6118386260519748,
          0.3734613804042981,
          0.9397919374432622,
          0.6359203021912281,
          0.827448322497101,
          0.5952386659833895,
          0.5335433756498604,
          -0.4771544278182174,
          -0.37349133720531613,
          1.3231198540095663,
          -0.6700406087528843,
          -0.4450960092356899,
          0.7742840735654068,
          0.5866949952569316,
          -0.642217337096191,
          -0.5506389563291774,
          0.6077560976148426,
          -0.4129186401153895,
          0.46354036872872095,
          -0.4433713382147384,
          -0.20504358680008483
        ],
        "bias": 1,
        "learingRate": 0.3
      }
    ],
    [
      {
        "weights": [
          -1.0225161161703054,
          -1.9591084601866955,
          -1.9597484078116967,
          -0.9229263153263996,
          -1.0398109249650722,
          -2.111682432232999,
          -1.8275266948350413,
          -0.6358986441294325,
          -0.554446698844774,
          -1.2872847978426059,
          -0.16345329057014402,
          -0.3760282279141922,
          -1.112693437288327,
          -1.8318583657608563,
          -1.4334855588961997,
          -0.8352089628127501,
          -1.1809591338660432,
          -1.0846218563233192,
          -1.5123351818783126,
          -0.2544088354689866,
          -0.5070573584971427,
          -1.6910896414170238,
          -1.6564704166602966,
          -1.061783358073534,
          -1.608989623452759,
          -0.5956306698923735,
          -0.18224207532602632,
          -1.7141415479108453,
          -1.3576960628952168,
          -1.0414350844764964,
          -1.270596636841733,
          -0.47809719841546094,
          -1.260358409734772
        ],
        "bias": 1,
        "learingRate": 0.3
      },
      {
        "weights": [
          -0.2975437540735144,
          -0.0019291906015328486,
          0.7443971730590802,
          -0.8369100695425002,
          -0.5860912690921332,
          0.567548265900601,
          0.30084094414976903,
          -0.4266976823410693,
          -0.8134658308735903,
          -0.17348592702324872,
          -0.1424460104392753,
          0.3562354358922466,
          -0.32104643846200087,
          0.7160046565894556,
          0.4079006429184573,
          -0.5769843061413278,
          -0.2772329043747628,
          -0.5519439217389177,
          0.19776488251573543,
          -0.5802858742476733,
          -0.3178780034949682,
          0.50117395601968,
          -0.49367859718129425,
          0.2718987903986898,
          0.08221963562286261,
          0.429151933308225,
          0.6420159295838048,
          -0.3567401733438742,
          -0.5738015734057735,
          -0.16249511119728766,
          -0.573636658327175,
          0.5999352097630717,
          -0.3300901125503972
        ],
        "bias": 1,
        "learingRate": 0.3
      },
      {
        "weights": [
          0.2720966979078403,
          -0.5431244032938016,
          -0.23866816164145765,
          0.18328049164867855,
          0.8203805274699669,
          -0.3843537209103207,
          0.05996867111649218,
          -0.09833517674516923,
          0.3109537893520309,
          0.7567001426480826,
          -0.7186030130903971,
          0.4833642618238603,
          -0.4815116472178942,
          0.6877468988505635,
          1.0944541126609533,
          0.2986161402145875,
          -0.013560003304569967,
          -0.09274630129945693,
          -0.804772078516887,
          -0.2294246140966174,
          0.7125823100455575,
          0.6767229029105555,
          -0.4945928211750301,
          0.9882810688413017,
          -0.5105800279420598,
          0.2868707605154093,
          -0.5221217293151819,
          0.44588669149911286,
          0.5918439448727693,
          0.5153944232406431,
          0.9308674689207495,
          -0.5912841126191646,
          0.48197189224890824
        ],
        "bias": 1,
        "learingRate": 0.3
      },
      {
        "weights": [
          -0.3648324383648984,
          0.39606077228399794,
          0.6079116297743306,
          0.6815256256307705,
          -0.5729388778352975,
          0.8684361118260115,
          -0.8292122368105606,
          -0.2625268357176411,
          0.05828638076517478,
          0.06884677882767454,
          -0.18379368655087047,
          -0.8003840509482836,
          -0.10934447873555442,
          0.12547850191043386,
          -0.6595211535674927,
          0.4250571857682206,
          -0.4318938653033664,
          0.16899905679122318,
          -0.646974578289016,
          0.37880445360081305,
          0.3388720063490367,
          -0.16065920847524895,
          0.7629452065156785,
          0.00028968863830280966,
          0.012452572793185013,
          0.5058366667297594,
          0.9054559941962665,
          -0.14340534900009372,
          0.910168031933412,
          0.611595473645258,
          -0.5363593086943701,
          -0.2140248850520119,
          -0.0731331916686524
        ],
        "bias": 1,
        "learingRate": 0.3
      },
      {
        "weights": [
          0.6652342743442996,
          -0.5609827975710986,
          -0.24750815585862362,
          0.09337182676119404,
          -0.03961025057554357,
          -0.11946761453636068,
          0.31186096154963083,
          0.44513927366823225,
          0.6337320339496801,
          -0.41073819758944197,
          -0.16727520442425625,
          -0.7806603331952542,
          0.6716045471364906,
          -0.8087718918750917,
          -0.9135380325741997,
          0.933065865209703,
          0.9755585199490078,
          -0.23384847340302928,
          0.3218234106883493,
          -0.707979457218999,
          -0.4804213505098569,
          -0.7403749759752265,
          -0.009312840687713209,
          -0.5545681867351844,
          -0.9186684130851188,
          -0.12021058428918074,
          0.12600729878202754,
          0.17119299371608676,
          0.5973386259181894,
          0.3535723582527681,
          0.621696634828333,
          0.48020407524552855,
          0.16360995740070106
        ],
        "bias": 1,
        "learingRate": 0.3
      },
      {
        "weights": [
          -0.06521874238373515,
          -0.2626394707820401,
          0.8437503391902075,
          0.9702870738679703,
          0.04903143307631508,
          -0.29079929822588024,
          0.7280734703970855,
          -0.8295345224073203,
          0.8074358908074042,
          -0.3923551089305377,
          -0.022770645145020918,
          -0.20543396882600495,
          -0.4123035575925167,
          0.4789140915976411,
          -0.5119380513321263,
          0.10460769099522249,
          -0.2105122830751407,
          0.3111176994578484,
          -0.14249895007752444,
          -0.07752367625937406,
          0.43203832486058014,
          0.10255269970598935,
          0.3772405985688456,
          0.6592485005627267,
          0.8138692404716026,
          0.699961733036599,
          -0.6353498645782119,
          -0.1930599151650787,
          -0.7996135293550246,
          0.3856151755310484,
          0.26801933442432846,
          -0.6164530435575273,
          -0.6105024730986983
        ],
        "bias": 1,
        "learingRate": 0.3
      },
      {
        "weights": [
          1.0433071212971172,
          1.085722141810571,
          1.6105605439261081,
          0.06019211002511771,
          0.8084612222563821,
          1.270598284808556,
          0.14457191273039172,
          0.7246178407274204,
          0.0935437901217906,
          1.7180953644037533,
          0.12041701839271557,
          0.1424371183023636,
          -0.0630396164971927,
          0.4481048632021567,
          1.1455515686331794,
          0.07137598611797058,
          0.9692298874219145,
          1.1637057714224133,
          0.25137464558321465,
          0.5474601764364171,
          0.32889412510479277,
          1.243307480170416,
          0.8703018453808147,
          0.8246226109687718,
          1.7185329607366673,
          1.6221203912358062,
          1.4153834562742533,
          1.828102935023789,
          1.7504068356832025,
          1.7496859131042077,
          1.1329017344100807,
          0.6430682754044321,
          -0.12638773852135188
        ],
        "bias": 1,
        "learingRate": 0.3
      },
      {
        "weights": [
          0.9211460560534737,
          0.9626572228451695,
          0.6515760102432724,
          0.9266297507759309,
          0.5818028296545648,
          0.3652218751259255,
          -0.613793770171212,
          -0.8211206111976499,
          0.5051412350834097,
          -0.11029513955781312,
          0.1540630189179022,
          0.3671289204209329,
          0.333229206390079,
          -0.6322207047698516,
          -0.38800625886630913,
          0.9823652775694183,
          0.9470892649316616,
          0.46175688469802845,
          0.18564268005098183,
          -0.8795535231942204,
          -0.4490633325887927,
          -0.012137361228476529,
          -0.5891680602165983,
          0.9912750013402327,
          -0.6662767224364403,
          -0.3571940603925796,
          -0.20468518395190083,
          0.1499258621890025,
          -0.8165931985513182,
          -0.18199135643281128,
          -0.8690928378602902,
          0.788199570577774,
          0.9420378326572321
        ],
        "bias": 1,
        "learingRate": 0.3
      },
      {
        "weights": [
          0.9445857746729147,
          0.10433663162431772,
          -0.6855329592271096,
          0.08249597212846238,
          -0.7640021471517735,
          0.268735698306771,
          0.31010868761667787,
          -0.7062358555327699,
          0.4269576562127355,
          -0.5170131484689087,
          -0.6389974008739077,
          0.6333550838393252,
          0.5678644697587316,
          -0.36781995619359176,
          0.26499848969880757,
          0.8867878918609091,
          -0.9760061917070453,
          -0.9710054535896684,
          -0.33540860776893,
          -0.050615882992898875,
          -0.9202071356842869,
          0.03345417229792291,
          0.11703562785214627,
          -0.49804155998904776,
          -0.5051355493015675,
          -0.7274777014185037,
          0.0036474743473986493,
          0.33854723884841986,
          -0.024027265787591734,
          -0.6189913977955159,
          0.3016953270038507,
          0.9504424184024707,
          0.900854748189686
        ],
        "bias": 1,
        "learingRate": 0.3
      },
      {
        "weights": [
          -0.6670057471177624,
          -0.6989955908226193,
          -0.7826692836471016,
          -0.6093447065547739,
          -0.06887546275353307,
          0.1326963508762944,
          -0.7786676925323781,
          0.954842677866095,
          0.692695676141375,
          -0.21014612210286465,
          0.11844067518132295,
          0.3340771803177818,
          -0.006552850117052866,
          0.825659569604122,
          0.37547854197904895,
          -0.3892528791465839,
          0.26097759536267295,
          -0.7747852917786564,
          -0.7409566374393433,
          -0.6774725721223547,
          0.6069106513749976,
          0.9001300556726588,
          -0.7882432588283081,
          -0.13955723675042764,
          0.2934600865993158,
          0.7412553032189271,
          -0.6533416889793009,
          -0.6944668687430569,
          0.4674312328578165,
          0.8878415649959428,
          0.01986283900252994,
          0.9792262450551998,
          0.43527335712364534
        ],
        "bias": 1,
        "learingRate": 0.3
      },
      {
        "weights": [
          0.14156981650217482,
          -0.1628505452014184,
          -0.9577965770155812,
          -0.08412430111638347,
          0.05244444955232641,
          0.2897771211356508,
          0.3896950653307214,
          0.6906020162396409,
          0.6204816465611742,
          -0.8463025049931701,
          0.5714078153401805,
          0.8041868772135836,
          0.8517553236241899,
          0.5613858217355081,
          0.6306626744506714,
          0.10352196743336384,
          0.6737343182521021,
          -0.12599146674595785,
          0.5370092177919816,
          0.6169441692596589,
          0.9808916969102466,
          -0.5430872356160608,
          0.880007080114245,
          0.04595358597600363,
          -0.7129267882729833,
          -0.575069048225747,
          -0.4298745746377173,
          0.7300492859777066,
          0.5665124329123006,
          0.6733397877498914,
          0.0028919269763232336,
          -0.9548758680767975,
          0.8306311217975169
        ],
        "bias": 1,
        "learingRate": 0.3
      },
      {
        "weights": [
          0.014896495722173775,
          -0.5824615072490751,
          0.7112251367104956,
          -0.4298983453703311,
          0.42875150318068034,
          -0.10531388538516895,
          -0.058523002173558325,
          0.1288920887484193,
          0.3138011105731744,
          -0.7765638485553557,
          -0.037549302437084986,
          0.5165337675350559,
          0.05004578763293965,
          -0.5779281980487414,
          0.5959228241372094,
          -0.027386778733983874,
          0.8703926497291161,
          -0.987841469607913,
          -0.6215470148372715,
          -0.8471405185420884,
          -0.4725185927043074,
          0.18767089403202464,
          -0.6079428403769018,
          0.2745022857917161,
          0.045573253974357186,
          -0.5959625046227859,
          0.988679238535179,
          -0.6580984825504599,
          0.9347634640593254,
          0.059010114436932604,
          0.7090882462532528,
          0.442138885929761,
          0.21820687661744964
        ],
        "bias": 1,
        "learingRate": 0.3
      },
      {
        "weights": [
          -0.9997706083171369,
          -0.8183792709946354,
          -0.21057785842597632,
          0.7932304364957732,
          0.8451539098063479,
          -0.7906207857507863,
          -0.8223481472823511,
          0.05131591379257516,
          0.25141792000409424,
          -0.7479584151987235,
          0.9937723869197534,
          -0.27637493244093836,
          -0.6866494308055855,
          -0.836839586124674,
          0.9072153055096837,
          0.11578271686673647,
          0.7333965890977758,
          0.29093479197570016,
          0.5413946487787866,
          0.7938348110088151,
          0.12062875891879044,
          0.09210082995336322,
          0.2164928010288043,
          0.6741890369017853,
          -0.6190639759897962,
          0.9195370853204579,
          0.6447684988025122,
          -0.39763202314922186,
          -0.9744111030756515,
          -0.884810864100583,
          -0.5237781544704614,
          -0.5343494323888671,
          0.2204219357533499
        ],
        "bias": 1,
        "learingRate": 0.3
      },
      {
        "weights": [
          -0.48774507060632155,
          -0.9372599519522913,
          -0.4939527424858068,
          0.22746439823953857,
          0.3043893530773616,
          -0.823924976044355,
          0.08154779119619882,
          -0.6586151800157567,
          -0.022677454301170297,
          0.8708211722464925,
          0.9134577275383582,
          0.7601270627379466,
          0.45799367057217255,
          -0.913306399435132,
          -0.6123334168511261,
          0.009106095580926787,
          0.7934747535241602,
          -0.38255520565627554,
          -0.14816265593370082,
          0.6073660699160697,
          0.06462220190929324,
          0.7180027050053526,
          -0.2343899734637076,
          -0.23765209731661274,
          -0.1904505715199436,
          0.527563517494825,
          -0.38636829464197353,
          0.05990267791973514,
          -0.6972699317916429,
          0.3525710219560567,
          0.6145315814880328,
          -0.9060503397511224,
          -0.4288817535108924
        ],
        "bias": 1,
        "learingRate": 0.3
      },
      {
        "weights": [
          0.5198112796856882,
          0.26339773288071466,
          -0.6943919024190226,
          -0.6796663555656317,
          -0.1532572782724051,
          0.09193010502665766,
          -0.5298445564396403,
          -0.3184027962103064,
          -0.48720069722998405,
          -0.1642240319369508,
          -0.366108065025061,
          -0.3669144112463254,
          -0.4812192299404412,
          0.348088861744841,
          -0.5370708015324075,
          0.7956975568897575,
          -0.2107184570070979,
          -0.03278351288565684,
          0.9616174454453441,
          -0.9142292643620995,
          0.39867478881002194,
          0.764243446463893,
          -0.8893124191150741,
          0.8773780164343035,
          0.5867836973526988,
          0.755234684787133,
          -0.7037982807020153,
          -0.8824158214886983,
          0.6878902790261221,
          0.024034101588105816,
          0.07587857792184494,
          0.3119320099086895,
          0.2503212823705905
        ],
        "bias": 1,
        "learingRate": 0.3
      },
      {
        "weights": [
          0.7544414768578678,
          -0.6714619597527411,
          0.17633947362695146,
          0.4149508564823927,
          -0.9653441534579055,
          -0.0243442528277531,
          0.45723146390582814,
          -0.030944412171629132,
          -0.6419367982528503,
          0.20334858805466371,
          -0.3900120316316351,
          0.31128178890220104,
          -0.47791584290163014,
          0.18393980199686766,
          0.644133812902072,
          0.8735179102182178,
          0.6820995611579179,
          0.7335822334516595,
          0.694074111519098,
          -0.5461983092563867,
          0.6995769099250246,
          0.8399162368132504,
          -0.7852224917585171,
          0.2574511319831543,
          0.40676380656610434,
          0.5252234562010654,
          0.36415811787747465,
          -0.26496834708250816,
          -0.9810626628830281,
          0.447292302946102,
          -0.04028993660250446,
          0.6573055011319822,
          -0.9022122300765201
        ],
        "bias": 1,
        "learingRate": 0.3
      },
      {
        "weights": [
          -0.39031332461140567,
          -0.8712891457421583,
          -0.10351519277366927,
          -1.2442595077038998,
          -1.0319717059836773,
          -1.0718692690757545,
          -0.952935810081601,
          -0.9497095163937885,
          -1.141606678665085,
          -1.8450281091522824,
          -1.0854711166022448,
          -1.0153346084052868,
          -0.13226578506846032,
          -1.5104616175805452,
          -0.28657742770060857,
          -1.3822675290325743,
          -0.26145806303911234,
          -1.617578058678661,
          -0.8932531790048981,
          -1.68676332317298,
          -1.3775081611758346,
          -0.9405977013641151,
          -0.7099719556053659,
          -0.38284700206205535,
          -0.40127307296017056,
          -0.1485030587143692,
          -0.0027196498495234422,
          -1.0448712030470606,
          -0.7818860471822693,
          -0.008720821416300595,
          -1.6607898654473043,
          -0.9249795736664366,
          -0.4203652068150996
        ],
        "bias": 1,
        "learingRate": 0.3
      },
      {
        "weights": [
          -0.8130892903013183,
          0.950440689118401,
          0.6090646122505867,
          0.08984774338713164,
          -0.6019164430847357,
          0.24647644811400093,
          -0.6437371960974017,
          -0.1674447427213015,
          0.9314996452901068,
          -0.04399206493525387,
          -0.2942655466583566,
          -0.09596530745126852,
          -0.027268568633938894,
          -0.1330813451125823,
          0.4016830037547554,
          -0.7120080056995937,
          0.0833366188316993,
          -0.21791773063433695,
          -0.6466093626438094,
          -0.03360123692819306,
          0.04717750894202899,
          -0.9753584874704195,
          -0.48036127567551645,
          0.16276641696937721,
          -0.2392693245421036,
          0.14565858913765073,
          0.3047469453700389,
          0.6131048164067949,
          -0.700888559969012,
          0.9229252618438473,
          -0.14059573559007088,
          -0.24375892343842454,
          -0.5092865973574368
        ],
        "bias": 1,
        "learingRate": 0.3
      },
      {
        "weights": [
          -0.2557489860318669,
          -0.5918120539732272,
          0.8872684491149152,
          0.6446008898189084,
          0.3203958366753126,
          0.7337462067795797,
          -0.33590647400387263,
          -0.0946705387470872,
          -0.2637597388898576,
          -0.2652939519168993,
          -0.8565578034005856,
          -0.2720367745667809,
          0.014675571181019809,
          0.37674556388937397,
          0.8735320252241681,
          -0.09743209514407214,
          -0.7511249747337723,
          -0.5714639774304011,
          0.16700523754522933,
          -0.7980442695412755,
          -0.9545005472194639,
          0.3026265452762553,
          -0.6314419393815616,
          -0.018777143179487865,
          0.469040377756619,
          -0.2961717587664072,
          -0.781416179712465,
          0.8426536714603885,
          0.9055640732963255,
          0.11993803776465972,
          0.5142537927041553,
          0.8453461255316252,
          -0.45116652953075054
        ],
        "bias": 1,
        "learingRate": 0.3
      },
      {
        "weights": [
          -0.31586391722887797,
          0.30152589785993467,
          -0.040539693428857326,
          0.9643459764340663,
          -0.028959270427596717,
          0.18208602131647478,
          0.45193072883063623,
          0.6280711973598794,
          0.7387437115486941,
          1.088127644185362,
          1.2380935731803042,
          0.45176833056340726,
          1.1456879970339693,
          0.22871238032587682,
          -0.3543770560195343,
          1.2144515191440348,
          -0.11528617024376597,
          -0.5894308366188348,
          0.2454806327261858,
          1.0639981809720114,
          -0.6352613268541143,
          1.0864311277835443,
          0.843987069919137,
          -0.6151696792633832,
          0.6725718002287486,
          0.36195118841434715,
          1.08657502715718,
          0.24153000339832031,
          -0.12666058172339012,
          -0.3505794287463626,
          -0.5797921257550902,
          1.2541830550007247,
          -0.5256213846594955
        ],
        "bias": 1,
        "learingRate": 0.3
      },
      {
        "weights": [
          -0.4661100734726511,
          0.1788687171194736,
          0.11312350331387222,
          0.9691285831634753,
          -0.2347459611289322,
          0.6201799685295506,
          -0.22827677769847732,
          0.4750395127879199,
          -0.7677257857725195,
          0.18948560320293728,
          0.7980802989223608,
          0.6529280375305699,
          -0.21429340434301292,
          0.12600163289477218,
          -0.39572293132977343,
          0.19950896962036913,
          0.5151624876371499,
          -0.7241810604773726,
          -0.515571627070611,
          0.5710782598132238,
          0.214192729859767,
          0.4925401038202848,
          0.49723472797026824,
          -0.9198560612975584,
          0.7601300074488999,
          0.21922933219357654,
          -0.32852884315527486,
          0.08489209704809486,
          0.7858102877889204,
          -0.8694418678104645,
          -0.36103304669586844,
          0.3151018406894477,
          0.8446831903493477
        ],
        "bias": 1,
        "learingRate": 0.3
      },
      {
        "weights": [
          -0.3161502362954729,
          -0.8517002054842169,
          0.11822665902941676,
          0.2665307138746682,
          0.7956637327486424,
          -0.4204933136687017,
          0.10699347703930773,
          1.0170602933897435,
          0.787833797014704,
          0.15737233623919566,
          0.6841176470998929,
          0.43358795048808574,
          0.8842783665715177,
          0.4507989100036647,
          0.14755763228840513,
          0.4205351542952629,
          0.39480097437670825,
          -0.3654386876048368,
          -0.1076888363847126,
          1.0844024723995975,
          0.47451351329411207,
          0.09690155376519494,
          -0.5300062248945903,
          -0.5752393314833681,
          -0.22145866721151464,
          0.9785297581826691,
          0.26031565697950176,
          0.28143090097948154,
          0.47232925961703076,
          -0.3681716460937903,
          0.3433940645748099,
          0.8209490744625998,
          0.11830944091575768
        ],
        "bias": 1,
        "learingRate": 0.3
      },
      {
        "weights": [
          -0.9770389476902439,
          -0.40269279103320255,
          -0.08124420568888846,
          0.06340566938318037,
          -0.6405311403540384,
          0.5598157697230337,
          -0.7080236330464178,
          0.03706463177914898,
          0.16349491721435827,
          0.5854246095417475,
          -0.36903740831960175,
          -0.05016992898953765,
          -0.803826421866841,
          0.332602137156393,
          -0.45124646547232583,
          -1.0128441305424447,
          -0.14615627878774395,
          -1.3673987842765287,
          0.3375257736314703,
          -0.7050302649269287,
          0.10397541609787186,
          0.13771571825123674,
          0.16019941099020407,
          -0.7918654710021009,
          0.20596087517966,
          -0.19249836825271904,
          -0.2918104948827329,
          -1.184472493024252,
          -0.8346259378094816,
          -1.10346777844271,
          0.23354958864857256,
          -0.31120354840073317,
          0.5901601012648467
        ],
        "bias": 1,
        "learingRate": 0.3
      },
      {
        "weights": [
          -0.1809892389373733,
          0.600661839569514,
          -0.8384226107958774,
          -0.40775952906539015,
          -0.6363009345458437,
          0.8216830607848697,
          0.7191093225664549,
          0.7015058816678605,
          0.39461868187902827,
          0.7364007728555224,
          -0.5424191147811688,
          -0.4325855556486293,
          -0.21057937366801394,
          -0.07268754104531139,
          0.4908765977473024,
          -0.7695155535775435,
          0.066537421027832,
          0.6845338964860139,
          -0.6285189533732942,
          -0.5999951854997514,
          0.0015644100954843587,
          -0.7565968817522686,
          0.060483240206676836,
          0.5415240207616381,
          0.45682310366939616,
          -0.9478312791150643,
          -0.42370749535634644,
          0.8680736128723647,
          0.4472172557171312,
          0.6458050054896671,
          0.32851618677959893,
          -0.30289646831851247,
          0.03914820235818617
        ],
        "bias": 1,
        "learingRate": 0.3
      },
      {
        "weights": [
          -0.6237225718148909,
          0.18084743810069748,
          -0.9138637371032505,
          0.6778379280600131,
          0.3463180733015161,
          0.19259473885743006,
          0.18856517673762996,
          -0.31599990368240594,
          -0.2052579726230963,
          -0.0002857914589586841,
          -0.9340698549173849,
          -0.7405912068690865,
          -0.5388071366600968,
          0.9440731731428733,
          0.6313362299151217,
          0.1817807549241568,
          -0.6430562937339288,
          0.025265032249033315,
          -0.3713815221656174,
          -0.9388719009072934,
          -0.9460047918368968,
          -0.010959029536942833,
          -0.03468083963485258,
          -0.45748227797487706,
          -0.6485299896365322,
          -0.13362311626945633,
          0.4869928325513051,
          -0.9301092994757854,
          0.28514649238831025,
          -0.14792018978496246,
          0.22623785361937543,
          0.1479798286048779,
          0.21470203017452683
        ],
        "bias": 1,
        "learingRate": 0.3
      },
      {
        "weights": [
          0.25419598322897086,
          0.8320689345723555,
          -0.12149064507946594,
          -0.23447786764042977,
          0.4118015104081394,
          -0.39689889906856246,
          0.08070843342160128,
          0.3208374386839892,
          0.5462881250603915,
          0.24397738550978199,
          0.56987290346088,
          0.6273772797452692,
          0.4167393283860976,
          0.3436296987838898,
          -0.47976711726969024,
          -0.43841855859180745,
          0.7422729638758594,
          1.3353281158202996,
          -0.47334311699227394,
          0.8682217321458663,
          1.005804967721338,
          0.6977757154967836,
          1.1398003960609828,
          0.5766712604715236,
          -0.0453231443855211,
          1.1427430998553398,
          0.8792522355648806,
          0.4009529075555269,
          0.3005604668023514,
          0.771232614051812,
          -0.5043068915840561,
          0.6467325111753413,
          0.2765361159045625
        ],
        "bias": 1,
        "learingRate": 0.3
      },
      {
        "weights": [
          0.6338753442987315,
          -0.393631181443439,
          0.8752002671608072,
          0.08925245569585494,
          -0.3840110461801176,
          -0.5952821414753511,
          -0.005765699049456785,
          -0.7900333145492815,
          1.0026978040964658,
          0.32970955225846854,
          -0.7228920313650073,
          -0.8586875200932971,
          -0.8805351548059726,
          0.5843121055033764,
          0.26548174939573954,
          0.5916222086156591,
          0.5304850768358893,
          0.14166897341651863,
          0.2330294734170537,
          -0.4710040199430434,
          -0.29145627378818517,
          0.48650423576027224,
          -0.6084063993064581,
          0.16678234740823106,
          -0.5785166416099097,
          -0.9025100605351746,
          0.729408213344179,
          0.8085221896998869,
          -0.43219516504142996,
          -0.3362329894995848,
          -0.7508604748572987,
          0.9415391606229853,
          0.7540471667880833
        ],
        "bias": 1,
        "learingRate": 0.3
      },
      {
        "weights": [
          1.0484697746081744,
          0.5460568544992035,
          1.5350932006717684,
          -0.0000941647298557946,
          1.5021304029602147,
          1.2498074567352933,
          1.2021270428121662,
          1.5378099150851403,
          -0.3686309830832024,
          0.9145752592758432,
          -0.09574440495663916,
          -0.3727622362653835,
          -0.07870164854247275,
          1.220176044419511,
          -0.35855048723639493,
          0.09038526892124477,
          1.161461669019212,
          1.0854403039224922,
          1.3788957528034413,
          1.4006118990551113,
          1.0845568394939762,
          0.8002534227890403,
          1.0449006439923378,
          0.7024006882767897,
          1.5976114521296747,
          0.8403573677817353,
          1.3810634257037506,
          1.2588687021719327,
          1.5977838406062053,
          0.6249573301392384,
          1.106237436765364,
          0.09455665525119139,
          0.7814009534495034
        ],
        "bias": 1,
        "learingRate": 0.3
      },
      {
        "weights": [
          0.3075083206131408,
          0.31580343305909375,
          -0.02290309767038501,
          0.17735821363197513,
          0.317654195280725,
          -0.31364359542996656,
          -0.6148341165426192,
          -0.027447675430491092,
          0.45201252858590735,
          0.3699742359899849,
          -0.28488461949668276,
          -0.9658723021365203,
          -0.8992883384249213,
          0.38267701143147415,
          -0.5541456890712344,
          0.32083919735772426,
          -0.7338107357983574,
          0.9106942411266674,
          -0.012494168342048972,
          -0.6125591440327907,
          -0.4360616133845405,
          -0.3181192437208167,
          -0.208438044206261,
          0.11802094900279414,
          0.2705817901612604,
          0.9378702246652422,
          -0.3901190564540049,
          -0.7431875255285023,
          -0.14125775998086842,
          -0.2144906132023725,
          -0.8161458681266431,
          0.515978978047237,
          -0.127341812301085
        ],
        "bias": 1,
        "learingRate": 0.3
      },
      {
        "weights": [
          0.741674971805133,
          0.8350127663805464,
          0.4362510930382437,
          0.8167116008389961,
          0.6710156264657678,
          0.027024680337627505,
          0.7434365024461758,
          0.11409638333476968,
          0.948780675203484,
          0.24090738975677395,
          -0.24768895432210192,
          0.32783804262662564,
          0.09956294667155063,
          0.8149969093374314,
          -0.0010328538349071437,
          0.47910853215857463,
          -0.8431939686917485,
          -0.24449997310675808,
          0.8031031176095467,
          -0.08436704078349466,
          -0.9996593902784809,
          0.2956454305746359,
          -0.11207751517228148,
          0.012834867721549958,
          0.6686773654318854,
          -0.06211515171839155,
          0.5891910515917727,
          -0.651518919097092,
          0.15898309983800818,
          0.08694605834416747,
          -0.9815927158368121,
          0.17230035709222324,
          0.6600645185780945
        ],
        "bias": 1,
        "learingRate": 0.3
      },
      {
        "weights": [
          -0.020729031214881122,
          -1.2768655443627241,
          -0.770763605141422,
          -1.4822194824967645,
          -1.5049788873036603,
          0.17706525059979716,
          -1.6615151239639285,
          0.24644484382447374,
          -0.5641725144868981,
          -0.10175176021306509,
          -0.5442833149162549,
          -0.3645485650099687,
          -1.5994783057106114,
          -1.4470186139238916,
          -1.6768902073490075,
          -1.5713403834995918,
          -0.07164494837777058,
          -0.9572801195651097,
          -0.5108927026306072,
          -0.9108249796925634,
          0.024047773744852563,
          -1.0027407598803872,
          -1.2416793686855052,
          -0.42797820684562193,
          -1.5331439751029707,
          -1.1088038620436165,
          0.22069030044816929,
          -0.5925493854690256,
          -0.5079926446703231,
          -0.9713418906198412,
          -0.15771900578030795,
          -1.1750296597049994,
          -1.0223256615189018
        ],
        "bias": 1,
        "learingRate": 0.3
      },
      {
        "weights": [
          0.9040827585451296,
          -0.6697140921004503,
          0.4768074499092858,
          0.35153323010866,
          -0.6520718955437692,
          0.2852197037635511,
          -0.7655211481837911,
          -0.6939884147930528,
          -0.9176477905034957,
          0.24778215781638702,
          -0.5867491645295364,
          -0.20480470489354596,
          -0.0722849000489405,
          -0.4988893686539937,
          -0.4692493775346045,
          -0.773304910575014,
          0.6991857360890017,
          -0.3819919718655149,
          -0.05897166012484156,
          -0.5699803825572278,
          -0.662978317257986,
          -0.5578548566505135,
          0.051770349134364846,
          0.37486531004683554,
          -0.0509113519207296,
          0.8449783871474446,
          -0.919037670772703,
          -0.34950930884387654,
          -0.9633038271729255,
          0.0587555433349678,
          0.37246827464859766,
          -0.19601242360198867,
          -0.10241848635068562
        ],
        "bias": 1,
        "learingRate": 0.3
      }
    ],
    [
      {
        "weights": [
          0.742581079736004,
          -0.07317856391697486,
          -0.6005013933886141,
          0.9008881364161301,
          0.7961168639221805,
          0.27311389544790865,
          0.07227058552335697,
          0.42733993849211327,
          -0.09384648868598466,
          0.8243487298455712,
          0.9494770503977037,
          0.6116430445342345,
          -0.42469418199604103,
          -0.49504547631719964,
          0.10733116114268038,
          -0.6688990821176635,
          0.776712481600152,
          -0.30456934865866225,
          0.7442213046977919,
          -0.3067381689399262,
          -0.490338378808743,
          -0.5313276923365802,
          -0.2878563088366821,
          0.0726880818513913,
          0.47419534516061423,
          -0.9864012708340839,
          0.2922966707494652,
          0.38659312360619236,
          0.8150141204258112,
          0.255237573300072,
          0.6577145129782505,
          0.4712867223107531,
          0.55532781724534
        ],
        "bias": 1,
        "learingRate": 0.3
      }
    ]
  ]
}
