{
  "sizes": [
    5,
    10,
    10,
    1
  ],
  "perceptrons": [
    [
      {
        "weights": [
          -0.00821763396564501,
          -0.7361748587379675,
          0.023830986150974898,
          0.3778078789559993,
          -0.7630679332523322,
          -1.3063176429654835
        ],
        "bias": 1,
        "learingRate": 0.3
      },
      {
        "weights": [
          -0.38020533247759225,
          0.6020773220384878,
          0.2572931988428748,
          0.8328782705189819,
          -0.22305993457400808,
          -0.6137179411074203
        ],
        "bias": 1,
        "learingRate": 0.3
      },
      {
        "weights": [
          -0.8936851463402609,
          0.6001158540180529,
          -0.8189877797513723,
          -0.12735219892617256,
          -0.33932217738898895,
          0.9145055454969215
        ],
        "bias": 1,
        "learingRate": 0.3
      },
      {
        "weights": [
          -0.40835692434097304,
          -0.69230520056602,
          0.46526547459360845,
          0.8820723109262492,
          0.4107573032160161,
          -0.4289772385839803
        ],
        "bias": 1,
        "learingRate": 0.3
      },
      {
        "weights": [
          0.4149852475191782,
          -0.20487341861119202,
          0.058876834175513704,
          0.6454041458895428,
          -0.7395163883831999,
          0.04797040476298564
        ],
        "bias": 1,
        "learingRate": 0.3
      },
      {
        "weights": [
          -0.1866160827747585,
          -1.6068371433037756,
          0.31003131972399256,
          -1.3385655436953576,
          -0.5356078830677031,
          0.025817831340676722
        ],
        "bias": 1,
        "learingRate": 0.3
      },
      {
        "weights": [
          -0.7753681496837324,
          -0.7327387488189023,
          0.28805604033634413,
          0.6994334155963746,
          -0.14955924310542645,
          -0.4575309900539568
        ],
        "bias": 1,
        "learingRate": 0.3
      },
      {
        "weights": [
          -1.5634873830885243,
          -0.23077243795276292,
          -0.9832336711686165,
          -1.5772280518497972,
          -0.29307553653449814,
          -0.6391632425325651
        ],
        "bias": 1,
        "learingRate": 0.3
      },
      {
        "weights": [
          -0.17234092808258694,
          -0.4408706756824454,
          0.6369083815365282,
          0.5378425178875066,
          -0.2623028927138029,
          0.8331186663851726
        ],
        "bias": 1,
        "learingRate": 0.3
      },
      {
        "weights": [
          -0.2587196351375094,
          0.014521844980265541,
          0.34629562112132417,
          -1.1191407314169592,
          -1.1464509942039363,
          -0.5600381678065389
        ],
        "bias": 1,
        "learingRate": 0.3
      }
    ],
    [
      {
        "weights": [
          0.9591657852463671,
          -0.4960012695397982,
          0.15908054830804552,
          0.8211894610542689,
          -0.5283431400348175,
          0.680853845921523,
          -0.6445267731572741,
          0.11778532500452199,
          -0.9697936463119379,
          0.5331209385306486,
          -0.1277941090354311
        ],
        "bias": 1,
        "learingRate": 0.3
      },
      {
        "weights": [
          -0.021228351801117373,
          -0.874064204331467,
          0.47253652025728776,
          0.8426016045002767,
          0.06963369186143309,
          -0.2826115555333648,
          0.12092932709616333,
          0.07386621634177004,
          -0.9965789257586386,
          -0.8951507765464268,
          0.30082933195167305
        ],
        "bias": 1,
        "learingRate": 0.3
      },
      {
        "weights": [
          0.5085989040806185,
          -0.9611341027706044,
          0.8605645110613223,
          -0.9760103432451208,
          0.22842727604987045,
          0.32301979462483255,
          -0.7656039796819591,
          -0.7800029111658553,
          0.9981524924918674,
          -0.027428716803366004,
          -0.5626960505921885
        ],
        "bias": 1,
        "learingRate": 0.3
      },
      {
        "weights": [
          0.3183188170448026,
          -0.46487215606466403,
          0.3693888816412496,
          0.3319371354725149,
          -0.7906579673310357,
          -0.9052396448457558,
          -0.7415422871725306,
          0.709882967091636,
          0.06033408310461619,
          -0.8886434257557436,
          0.5833511979541885
        ],
        "bias": 1,
        "learingRate": 0.3
      },
      {
        "weights": [
          0.075283837770868,
          0.5727142191288501,
          0.9033450365995273,
          -0.18038265218146998,
          -0.549274292800487,
          0.52774228419546,
          0.6780858458645165,
          -0.40757337345662403,
          0.21194720849778204,
          0.9408827206171497,
          0.9140910117969399
        ],
        "bias": 1,
        "learingRate": 0.3
      },
      {
        "weights": [
          0.7205258742995211,
          0.22833142191646294,
          0.22906983088003896,
          0.9470571568491502,
          -0.3357639544884883,
          0.13455601291250296,
          -0.7544168075899611,
          0.4497697172137878,
          0.9239760678245301,
          -0.01683006480573912,
          0.07475604740500819
        ],
        "bias": 1,
        "learingRate": 0.3
      },
      {
        "weights": [
          0.6907994371327151,
          -0.9105993073577023,
          0.5765617143544159,
          -0.04262263307993752,
          0.4292104297477257,
          -0.5319552500021061,
          0.7704588021392698,
          0.3476821090669566,
          -0.6752423275640376,
          0.6934564987390686,
          0.8804490583732005
        ],
        "bias": 1,
        "learingRate": 0.3
      },
      {
        "weights": [
          0.03462145767205005,
          0.31737774713511424,
          -0.7211095488374082,
          0.8341703266594198,
          -0.2722510671588476,
          0.4170257302412539,
          0.8606738193583294,
          -0.5805237328514847,
          0.44617725234269434,
          0.3333193773993388,
          -0.8662365219573518
        ],
        "bias": 1,
        "learingRate": 0.3
      },
      {
        "weights": [
          0.12574630968844902,
          -0.3953714759423925,
          -0.8175292516557575,
          0.9761964444020408,
          -0.8932039979691386,
          0.7251265473313202,
          0.04458459169503737,
          0.22882193716267674,
          -0.63229078805331,
          -0.8132303602056719,
          -0.07972066365386254
        ],
        "bias": 1,
        "learingRate": 0.3
      },
      {
        "weights": [
          0.910245558834446,
          -0.8895925139920822,
          0.6012747793787274,
          -0.5838880617375004,
          0.623601725702986,
          -0.9088084835189378,
          0.995566184693697,
          -0.4425030465975701,
          -0.4852566776608156,
          -0.7931797236451263,
          0.06716890913545548
        ],
        "bias": 1,
        "learingRate": 0.3
      }
    ],
    [
      {
        "weights": [
          -0.35195409313057713,
          -0.21578431882830884,
          -1.1335819947419048,
          0.12606901339407983,
          0.17214431006777042,
          -0.0850031117296619,
          -0.16372944334507,
          -0.044625508492871724,
          -0.97636735903352,
          0.22745962173947332,
          -1.170327457857773
        ],
        "bias": 1,
        "learingRate": 0.3
      }
    ]
  ]
}
